FANN_FLO_2.1
num_layers=3
learning_rate=0.600000
connection_rate=1.000000
network_type=0
learning_momentum=0.900000
training_algorithm=2
train_error_function=1
train_stop_function=0
cascade_output_change_fraction=0.010000
quickprop_decay=-0.000100
quickprop_mu=1.750000
rprop_increase_factor=1.200000
rprop_decrease_factor=0.500000
rprop_delta_min=0.000000
rprop_delta_max=50.000000
rprop_delta_zero=0.100000
cascade_output_stagnation_epochs=12
cascade_candidate_change_fraction=0.010000
cascade_candidate_stagnation_epochs=12
cascade_max_out_epochs=150
cascade_min_out_epochs=50
cascade_max_cand_epochs=150
cascade_min_cand_epochs=50
cascade_num_candidate_groups=2
bit_fail_limit=3.49999994039535522461e-01
cascade_candidate_limit=1.00000000000000000000e+03
cascade_weight_multiplier=4.00000005960464477539e-01
cascade_activation_functions_count=10
cascade_activation_functions=3 5 7 8 10 11 14 15 16 17 
cascade_activation_steepnesses_count=4
cascade_activation_steepnesses=2.50000000000000000000e-01 5.00000000000000000000e-01 7.50000000000000000000e-01 1.00000000000000000000e+00 
layer_sizes=101 11 2 
scale_included=0
neurons (num_inputs, activation_function, activation_steepness)=(0, 0, 0.00000000000000000000e+00) (0, 0, 0.00000000000000000000e+00) (0, 0, 0.00000000000000000000e+00) (0, 0, 0.00000000000000000000e+00) (0, 0, 0.00000000000000000000e+00) (0, 0, 0.00000000000000000000e+00) (0, 0, 0.00000000000000000000e+00) (0, 0, 0.00000000000000000000e+00) (0, 0, 0.00000000000000000000e+00) (0, 0, 0.00000000000000000000e+00) (0, 0, 0.00000000000000000000e+00) (0, 0, 0.00000000000000000000e+00) (0, 0, 0.00000000000000000000e+00) (0, 0, 0.00000000000000000000e+00) (0, 0, 0.00000000000000000000e+00) (0, 0, 0.00000000000000000000e+00) (0, 0, 0.00000000000000000000e+00) (0, 0, 0.00000000000000000000e+00) (0, 0, 0.00000000000000000000e+00) (0, 0, 0.00000000000000000000e+00) (0, 0, 0.00000000000000000000e+00) (0, 0, 0.00000000000000000000e+00) (0, 0, 0.00000000000000000000e+00) (0, 0, 0.00000000000000000000e+00) (0, 0, 0.00000000000000000000e+00) (0, 0, 0.00000000000000000000e+00) (0, 0, 0.00000000000000000000e+00) (0, 0, 0.00000000000000000000e+00) (0, 0, 0.00000000000000000000e+00) (0, 0, 0.00000000000000000000e+00) (0, 0, 0.00000000000000000000e+00) (0, 0, 0.00000000000000000000e+00) (0, 0, 0.00000000000000000000e+00) (0, 0, 0.00000000000000000000e+00) (0, 0, 0.00000000000000000000e+00) (0, 0, 0.00000000000000000000e+00) (0, 0, 0.00000000000000000000e+00) (0, 0, 0.00000000000000000000e+00) (0, 0, 0.00000000000000000000e+00) (0, 0, 0.00000000000000000000e+00) (0, 0, 0.00000000000000000000e+00) (0, 0, 0.00000000000000000000e+00) (0, 0, 0.00000000000000000000e+00) (0, 0, 0.00000000000000000000e+00) (0, 0, 0.00000000000000000000e+00) (0, 0, 0.00000000000000000000e+00) (0, 0, 0.00000000000000000000e+00) (0, 0, 0.00000000000000000000e+00) (0, 0, 0.00000000000000000000e+00) (0, 0, 0.00000000000000000000e+00) (0, 0, 0.00000000000000000000e+00) (0, 0, 0.00000000000000000000e+00) (0, 0, 0.00000000000000000000e+00) (0, 0, 0.00000000000000000000e+00) (0, 0, 0.00000000000000000000e+00) (0, 0, 0.00000000000000000000e+00) (0, 0, 0.00000000000000000000e+00) (0, 0, 0.00000000000000000000e+00) (0, 0, 0.00000000000000000000e+00) (0, 0, 0.00000000000000000000e+00) (0, 0, 0.00000000000000000000e+00) (0, 0, 0.00000000000000000000e+00) (0, 0, 0.00000000000000000000e+00) (0, 0, 0.00000000000000000000e+00) (0, 0, 0.00000000000000000000e+00) (0, 0, 0.00000000000000000000e+00) (0, 0, 0.00000000000000000000e+00) (0, 0, 0.00000000000000000000e+00) (0, 0, 0.00000000000000000000e+00) (0, 0, 0.00000000000000000000e+00) (0, 0, 0.00000000000000000000e+00) (0, 0, 0.00000000000000000000e+00) (0, 0, 0.00000000000000000000e+00) (0, 0, 0.00000000000000000000e+00) (0, 0, 0.00000000000000000000e+00) (0, 0, 0.00000000000000000000e+00) (0, 0, 0.00000000000000000000e+00) (0, 0, 0.00000000000000000000e+00) (0, 0, 0.00000000000000000000e+00) (0, 0, 0.00000000000000000000e+00) (0, 0, 0.00000000000000000000e+00) (0, 0, 0.00000000000000000000e+00) (0, 0, 0.00000000000000000000e+00) (0, 0, 0.00000000000000000000e+00) (0, 0, 0.00000000000000000000e+00) (0, 0, 0.00000000000000000000e+00) (0, 0, 0.00000000000000000000e+00) (0, 0, 0.00000000000000000000e+00) (0, 0, 0.00000000000000000000e+00) (0, 0, 0.00000000000000000000e+00) (0, 0, 0.00000000000000000000e+00) (0, 0, 0.00000000000000000000e+00) (0, 0, 0.00000000000000000000e+00) (0, 0, 0.00000000000000000000e+00) (0, 0, 0.00000000000000000000e+00) (0, 0, 0.00000000000000000000e+00) (0, 0, 0.00000000000000000000e+00) (0, 0, 0.00000000000000000000e+00) (0, 0, 0.00000000000000000000e+00) (0, 0, 0.00000000000000000000e+00) (0, 0, 0.00000000000000000000e+00) (101, 5, 5.00000000000000000000e-01) (101, 5, 5.00000000000000000000e-01) (101, 5, 5.00000000000000000000e-01) (101, 5, 5.00000000000000000000e-01) (101, 5, 5.00000000000000000000e-01) (101, 5, 5.00000000000000000000e-01) (101, 5, 5.00000000000000000000e-01) (101, 5, 5.00000000000000000000e-01) (101, 5, 5.00000000000000000000e-01) (101, 5, 5.00000000000000000000e-01) (0, 5, 0.00000000000000000000e+00) (11, 5, 5.00000000000000000000e-01) (0, 5, 0.00000000000000000000e+00) 
connections (connected_to_neuron, weight)=(0, 2.22046002745628356934e-01) (1, 1.44058078527450561523e-01) (2, 5.47852134332060813904e-04) (3, -3.42282950878143310547e-01) (4, -6.90134465694427490234e-01) (5, -3.68321478366851806641e-01) (6, 1.43410578370094299316e-01) (7, 8.56870338320732116699e-02) (8, 4.36775624752044677734e-01) (9, 1.36315190792083740234e+00) (10, 7.80586302280426025391e-02) (11, -1.37191876769065856934e-01) (12, -1.96860387921333312988e-01) (13, 8.85394439101219177246e-02) (14, 1.98759183287620544434e-01) (15, 6.44210129976272583008e-02) (16, 1.68318659067153930664e-01) (17, 5.85635304450988769531e-01) (18, 5.13482391834259033203e-01) (19, 2.13382527232170104980e-01) (20, -1.80444270372390747070e-01) (21, -1.83479338884353637695e-01) (22, 6.99955970048904418945e-02) (23, 5.50352156162261962891e-01) (24, 6.54535949230194091797e-01) (25, 5.88204741477966308594e-01) (26, 1.35883748531341552734e+00) (27, -6.40762388706207275391e-01) (28, -2.26209118962287902832e-01) (29, 8.80697146058082580566e-02) (30, -7.32133448123931884766e-01) (31, 1.65136396884918212891e-01) (32, 4.84431803226470947266e-01) (33, 6.48867845535278320312e-01) (34, 5.20055651664733886719e-01) (35, 5.34814774990081787109e-01) (36, 5.83964645862579345703e-01) (37, 1.20643533766269683838e-01) (38, -2.45861381292343139648e-01) (39, 2.03134775161743164062e-01) (40, -6.70208275318145751953e-01) (41, 1.51170313358306884766e+00) (42, 4.25077855587005615234e-01) (43, 4.59010869264602661133e-01) (44, 7.51162618398666381836e-02) (45, 2.35024794936180114746e-01) (46, 1.04002475738525390625e+00) (47, 5.59654422104358673096e-02) (48, 1.96017429232597351074e-01) (49, -3.30133140087127685547e-01) (50, -2.69112467765808105469e-01) (51, 5.86215376853942871094e-01) (52, 5.07130146026611328125e-01) (53, 1.09503708779811859131e-01) (54, 1.26520901918411254883e-01) (55, 2.12298423051834106445e-01) (56, 1.45233118534088134766e+00) (57, 1.60232111811637878418e-01) (58, -2.72165834903717041016e-01) (59, -2.99004375934600830078e-01) (60, -2.24277451634407043457e-01) (61, 9.29869860410690307617e-02) (62, 2.07981064915657043457e-01) (63, 6.29453778266906738281e-01) (64, 5.54385304450988769531e-01) (65, 4.67127233743667602539e-01) (66, 1.81060314178466796875e-01) (67, 5.48633672297000885010e-02) (68, -6.57369315624237060547e-01) (69, 1.38338938355445861816e-01) (70, 4.30782064795494079590e-02) (71, -5.87060153484344482422e-01) (72, 1.24915748834609985352e-01) (73, 9.78829264640808105469e-02) (74, 6.78349316120147705078e-01) (75, 5.99341094493865966797e-01) (76, 1.18490862846374511719e+00) (77, -8.49730521440505981445e-03) (78, -4.23942863941192626953e-01) (79, 2.25645318627357482910e-01) (80, 5.81194646656513214111e-02) (81, -1.91993668675422668457e-01) (82, -6.05828940868377685547e-01) (83, 8.31058472394943237305e-02) (84, 2.59359091520309448242e-01) (85, 2.33758941292762756348e-01) (86, 1.53924360871315002441e-01) (87, 3.03649641573429107666e-02) (88, 1.11000269651412963867e-01) (89, 5.78960716724395751953e-01) (90, 2.84309357404708862305e-01) (91, 2.04663544893264770508e-01) (92, -8.95766541361808776855e-02) (93, -1.47711373865604400635e-02) (94, 1.51973515748977661133e-01) (95, 1.55376985669136047363e-01) (96, 2.82245427370071411133e-01) (97, 1.97944000363349914551e-01) (98, 6.62544369697570800781e-01) (99, 5.34329473972320556641e-01) (100, 7.53734409809112548828e-02) (0, 7.73141086101531982422e-02) (1, 9.92462635040283203125e-02) (2, 7.76366442441940307617e-02) (3, -3.70818316936492919922e-01) (4, -8.26743423938751220703e-01) (5, -7.12798297405242919922e-01) (6, 9.79259014129638671875e-02) (7, 9.94849652051925659180e-02) (8, 2.27530628442764282227e-01) (9, 1.74709117412567138672e+00) (10, 1.42684563994407653809e-01) (11, 3.63723672926425933838e-02) (12, 3.57821621000766754150e-02) (13, 2.10870489478111267090e-01) (14, 1.96390047669410705566e-01) (15, 8.63161124289035797119e-03) (16, 8.50862711668014526367e-02) (17, 5.09145200252532958984e-01) (18, 5.81258893013000488281e-01) (19, 2.39132955670356750488e-01) (20, -3.67111980915069580078e-01) (21, 4.30968590080738067627e-02) (22, 1.07348456978797912598e-01) (23, 2.61014848947525024414e-01) (24, 1.41718506813049316406e-01) (25, 6.14143133163452148438e-01) (26, 6.42001450061798095703e-01) (27, -8.43442261219024658203e-01) (28, -6.93989217281341552734e-01) (29, 1.31934121251106262207e-01) (30, -7.82988727092742919922e-01) (31, 2.36764863133430480957e-01) (32, 1.62425056099891662598e-01) (33, 4.75993335247039794922e-01) (34, 8.22970718145370483398e-02) (35, 1.89121469855308532715e-01) (36, 6.37398421764373779297e-01) (37, 1.11467659473419189453e-01) (38, -7.02344119548797607422e-01) (39, 2.02176645398139953613e-01) (40, -8.16821157932281494141e-01) (41, 4.60117697715759277344e-01) (42, 1.38257741928100585938e-01) (43, 2.33968958258628845215e-01) (44, 2.35895410180091857910e-01) (45, 2.58996397256851196289e-01) (46, 5.01750767230987548828e-01) (47, 2.43574991822242736816e-01) (48, 1.12285420298576354980e-01) (49, -8.40616047382354736328e-01) (50, -2.50389933586120605469e-01) (51, 5.48624932765960693359e-01) (52, 5.83826303482055664062e-01) (53, 2.52545684576034545898e-01) (54, 1.53783515095710754395e-01) (55, 9.04518216848373413086e-02) (56, 1.71602523326873779297e+00) (57, 1.39928579330444335938e-01) (58, -8.21745693683624267578e-01) (59, 2.94785760343074798584e-02) (60, -7.19087898731231689453e-01) (61, 5.11400625109672546387e-02) (62, 1.59056141972541809082e-01) (63, 4.63114440441131591797e-01) (64, 2.11801245808601379395e-01) (65, 1.72597900032997131348e-01) (66, 1.95026130676269531250e+01) (67, 1.93343296647071838379e-01) (68, -7.06885039806365966797e-01) (69, 1.68238833546638488770e-01) (70, 1.26764550805091857910e-01) (71, -6.70266211032867431641e-01) (72, 1.93263754248619079590e-01) (73, 1.89370945096015930176e-01) (74, 2.17142567038536071777e-01) (75, 1.41449332237243652344e-01) (76, 5.45949578285217285156e-01) (77, 8.38003903627395629883e-02) (78, -2.63446159660816192627e-02) (79, 2.23142072558403015137e-01) (80, 9.66242402791976928711e-02) (81, -4.04685318470001220703e-01) (82, -8.06284606456756591797e-01) (83, 2.45357677340507507324e-01) (84, 2.64210939407348632812e-01) (85, 2.00938805937767028809e-01) (86, 2.67054140567779541016e-01) (87, 2.08097055554389953613e-01) (88, 5.31575083732604980469e-02) (89, 1.05644345283508300781e-01) (90, 1.49342790246009826660e-01) (91, 2.06464007496833801270e-01) (92, 2.00893685221672058105e-01) (93, 2.39643558859825134277e-01) (94, 2.34485641121864318848e-01) (95, 1.43939554691314697266e-01) (96, 1.43486097455024719238e-01) (97, 1.82873368263244628906e-01) (98, 2.68527448177337646484e-01) (99, 3.34641605615615844727e-01) (100, 8.23567807674407958984e-02) (0, -2.45764181017875671387e-01) (1, -2.99086332321166992188e-01) (2, 2.32299312949180603027e-01) (3, 2.72586315870285034180e-01) (4, 3.31638753414154052734e-01) (5, 1.23947709798812866211e-01) (6, -2.14291974902153015137e-01) (7, -1.35653913021087646484e-01) (8, -1.82929486036300659180e-01) (9, -3.85398715734481811523e-01) (10, -1.07784986495971679688e-01) (11, 2.02081099152565002441e-01) (12, 1.84984937310218811035e-01) (13, -1.31182700395584106445e-01) (14, -2.27648645639419555664e-01) (15, -3.08017075061798095703e-01) (16, -1.60334318876266479492e-01) (17, 1.46116405725479125977e-01) (18, 1.66605055332183837891e-01) (19, -3.02891016006469726562e-01) (20, 2.36420288681983947754e-01) (21, 2.58233696222305297852e-01) (22, -1.70752555131912231445e-01) (23, -1.38586401939392089844e-01) (24, -1.21930919587612152100e-01) (25, 1.48246467113494873047e-01) (26, 2.15140372514724731445e-01) (27, 2.22684845328330993652e-01) (28, 1.01938545703887939453e-01) (29, -2.94410169124603271484e-01) (30, 2.36286327242851257324e-01) (31, -5.32482624053955078125e-01) (32, -2.38110899925231933594e-01) (33, 3.35873246192932128906e-01) (34, 1.34127894416451454163e-02) (35, -1.37104421854019165039e-01) (36, 1.54193893074989318848e-01) (37, -1.70364588499069213867e-01) (38, 2.28521957993507385254e-01) (39, -1.81956917047500610352e-01) (40, 3.55613350868225097656e-01) (41, 2.14565932750701904297e-01) (42, -2.39444509148597717285e-01) (43, 3.71019542217254638672e-02) (44, -2.01089769601821899414e-01) (45, -1.70717984437942504883e-01) (46, 2.02518910169601440430e-01) (47, -2.30428203940391540527e-01) (48, -1.09074562788009643555e-01) (49, 2.11120530962944030762e-01) (50, 1.56523540616035461426e-01) (51, 1.43133416771888732910e-01) (52, 2.21244767308235168457e-01) (53, -2.96980917453765869141e-01) (54, -2.53724813461303710938e-01) (55, -2.92795777320861816406e-01) (56, -4.14497226476669311523e-01) (57, -2.65875041484832763672e-01) (58, 1.48831725120544433594e-01) (59, 1.16480231285095214844e-01) (60, 1.40995293855667114258e-01) (61, -1.91409200429916381836e-01) (62, -5.76072931289672851562e-01) (63, 2.00669899582862854004e-01) (64, -1.43965333700180053711e-01) (65, 1.01234063506126403809e-01) (66, -3.10306453704833984375e+00) (67, -1.70443177223205566406e-01) (68, 2.43721857666969299316e-01) (69, -1.42371445894241333008e-01) (70, -2.48854801058769226074e-01) (71, 2.20542892813682556152e-01) (72, -2.12278530001640319824e-01) (73, -2.19374522566795349121e-01) (74, -1.42338335514068603516e-01) (75, -4.98769059777259826660e-03) (76, 1.01471304893493652344e-01) (77, -1.03582888841629028320e-01) (78, 1.61029309034347534180e-01) (79, -2.92076349258422851562e-01) (80, -1.86651796102523803711e-01) (81, 2.34801128506660461426e-01) (82, 3.26963186264038085938e-01) (83, -1.05676501989364624023e-01) (84, -1.56369090080261230469e-01) (85, -1.05553835630416870117e-01) (86, -5.89394450187683105469e-01) (87, -8.88323411345481872559e-02) (88, -4.35162633657455444336e-01) (89, -2.15894848108291625977e-01) (90, -1.19536593556404113770e-01) (91, -2.21077486872673034668e-01) (92, 2.69586682319641113281e-01) (93, 1.66019558906555175781e-01) (94, -1.60677045583724975586e-01) (95, -2.20408067107200622559e-01) (96, -2.99966752529144287109e-01) (97, -1.33835583925247192383e-01) (98, -2.35465884208679199219e-01) (99, 2.42756441235542297363e-01) (100, -1.72661632299423217773e-01) (0, 2.18117728829383850098e-01) (1, 2.57446169853210449219e-01) (2, -1.54199779033660888672e-01) (3, -2.12491918355226516724e-02) (4, -1.56724572181701660156e-01) (5, -1.60477101802825927734e-01) (6, 3.19286912679672241211e-01) (7, 1.66775792837142944336e-01) (8, 3.26680034399032592773e-01) (9, 4.71613693237304687500e+00) (10, 2.83669382333755493164e-01) (11, -1.53025567531585693359e-01) (12, -4.46108207106590270996e-02) (13, 2.81538307666778564453e-01) (14, 3.17688554525375366211e-01) (15, 2.76918590068817138672e-01) (16, 2.98808455467224121094e-01) (17, 1.92540395259857177734e+00) (18, 8.40486288070678710938e-01) (19, 2.41546049714088439941e-01) (20, -6.01223595440387725830e-02) (21, -1.28489181399345397949e-01) (22, 3.28815281391143798828e-01) (23, 4.23373520374298095703e-01) (24, 4.26045000553131103516e-01) (25, 7.39858269691467285156e-01) (26, 2.87865710258483886719e+00) (27, -1.59109700471162796021e-02) (28, -9.53455418348312377930e-02) (29, 2.07332611083984375000e-01) (30, -5.22116601467132568359e-01) (31, 3.87250572443008422852e-01) (32, 4.05719369649887084961e-01) (33, 7.88567006587982177734e-01) (34, 3.49247902631759643555e-01) (35, 4.25345271825790405273e-01) (36, 8.25203776359558105469e-01) (37, 3.14451485872268676758e-01) (38, -1.66732072830200195312e-01) (39, 1.59247994422912597656e-01) (40, -5.50734996795654296875e-01) (41, 1.93928515911102294922e+00) (42, 2.79352337121963500977e-01) (43, 4.36655968427658081055e-01) (44, 2.27638795971870422363e-01) (45, 2.41202190518379211426e-01) (46, 1.91736066341400146484e+00) (47, 1.70608475804328918457e-01) (48, 2.85293400287628173828e-01) (49, -8.67812484502792358398e-02) (50, -1.25935286283493041992e-01) (51, 3.71740937232971191406e-01) (52, 8.12523484230041503906e-01) (53, 2.46595129370689392090e-01) (54, 1.89579695463180541992e-01) (55, 2.75347471237182617188e-01) (56, 4.60861301422119140625e+00) (57, 1.81216672062873840332e-01) (58, -8.77507776021957397461e-02) (59, -1.93004775792360305786e-02) (60, -8.21758955717086791992e-02) (61, 3.27110290527343750000e-01) (62, 3.51196616888046264648e-01) (63, 7.39671587944030761719e-01) (64, 3.28712373971939086914e-01) (65, 2.58233159780502319336e-01) (66, 1.96488304138183593750e+01) (67, 1.69931769371032714844e-01) (68, -8.11925381422042846680e-02) (69, 2.11414352059364318848e-01) (70, 1.81992411613464355469e-01) (71, -1.84875894337892532349e-02) (72, 1.57514780759811401367e-01) (73, 3.05505990982055664062e-01) (74, 3.87622773647308349609e-01) (75, 3.07139754295349121094e-01) (76, 1.86926209926605224609e+00) (77, 2.30566710233688354492e-01) (78, -4.55999411642551422119e-02) (79, 1.68266922235488891602e-01) (80, 3.13239812850952148438e-01) (81, -3.24986800551414489746e-02) (82, -1.07832774519920349121e-01) (83, 2.50670343637466430664e-01) (84, 3.90446871519088745117e-01) (85, 3.46225351095199584961e-01) (86, 2.66958475112915039062e-01) (87, -4.92473728954792022705e-02) (88, 3.61300200223922729492e-01) (89, 3.64209562540054321289e-01) (90, 3.35413932800292968750e-01) (91, 1.86301261186599731445e-01) (92, -7.61846750974655151367e-02) (93, -7.91386216878890991211e-02) (94, 2.50879883766174316406e-01) (95, 3.40750098228454589844e-01) (96, 2.60420948266983032227e-01) (97, 3.05488437414169311523e-01) (98, 2.51622557640075683594e-01) (99, 6.15190923213958740234e-01) (100, 1.69715464115142822266e-01) (0, 5.87869167327880859375e-01) (1, 7.03011393547058105469e-01) (2, 8.45050662755966186523e-02) (3, 1.72952443361282348633e-01) (4, -2.66878038644790649414e-01) (5, 1.75283938646316528320e-01) (6, 5.22630035877227783203e-01) (7, 7.31802165508270263672e-01) (8, 5.95354735851287841797e-01) (9, 1.08617277145385742188e+01) (10, 6.97854638099670410156e-01) (11, 2.33335703611373901367e-01) (12, 1.31731122732162475586e-01) (13, 3.89830172061920166016e-01) (14, 6.73574686050415039062e-01) (15, 5.16241312026977539062e-01) (16, 6.53744220733642578125e-01) (17, 4.44363784790039062500e+00) (18, 1.72815358638763427734e+00) (19, 5.53223550319671630859e-01) (20, 2.07870513200759887695e-01) (21, 2.26694434881210327148e-01) (22, 6.53389394283294677734e-01) (23, 5.90189754962921142578e-01) (24, 6.15494430065155029297e-01) (25, 1.70241773128509521484e+00) (26, 6.58751392364501953125e+00) (27, -3.48401397466659545898e-01) (28, 1.78151935338973999023e-01) (29, 7.11814999580383300781e-01) (30, -3.25873225927352905273e-01) (31, 7.14371621608734130859e-01) (32, 6.78069412708282470703e-01) (33, 1.68464481830596923828e+00) (34, 6.52225077152252197266e-01) (35, 5.96631228923797607422e-01) (36, 1.65811133384704589844e+00) (37, 6.33054912090301513672e-01) (38, 1.06569036841392517090e-01) (39, 3.79140496253967285156e-01) (40, -2.77578085660934448242e-01) (41, 4.29165983200073242188e+00) (42, 5.93097507953643798828e-01) (43, 7.41250932216644287109e-01) (44, 6.17354810237884521484e-01) (45, 7.09151923656463623047e-01) (46, 4.45457839965820312500e+00) (47, 7.13578641414642333984e-01) (48, 4.65638816356658935547e-01) (49, 1.66515588760375976562e-01) (50, 2.65701174736022949219e-01) (51, 8.30386698246002197266e-01) (52, 1.68213355541229248047e+00) (53, 6.46677672863006591797e-01) (54, 6.86800062656402587891e-01) (55, 7.05405414104461669922e-01) (56, 1.08702802658081054688e+01) (57, 6.53466522693634033203e-01) (58, 5.73365539312362670898e-02) (59, 1.98267787694931030273e-01) (60, 1.43417090177536010742e-01) (61, 3.90503227710723876953e-01) (62, 6.77540421485900878906e-01) (63, 1.62530267238616943359e+00) (64, 6.94432914257049560547e-01) (65, 5.76457917690277099609e-01) (66, 4.70910949707031250000e+01) (67, 7.10489511489868164062e-01) (68, -2.65991538763046264648e-01) (69, 6.84630751609802246094e-01) (70, 3.52873027324676513672e-01) (71, -3.58129709959030151367e-01) (72, 7.00647950172424316406e-01) (73, 5.99957704544067382812e-01) (74, 5.52010595798492431641e-01) (75, 5.35755038261413574219e-01) (76, 4.31123924255371093750e+00) (77, 5.35988926887512207031e-01) (78, 8.95104929804801940918e-02) (79, 7.29292511940002441406e-01) (80, 6.45811796188354492188e-01) (81, 6.62482529878616333008e-02) (82, -3.12844604253768920898e-01) (83, 7.35722780227661132812e-01) (84, 6.61276340484619140625e-01) (85, 5.59395372867584228516e-01) (86, 7.04371213912963867188e-01) (87, 4.24394011497497558594e-01) (88, 6.30614280700683593750e-01) (89, 7.30821609497070312500e-01) (90, 6.28010451793670654297e-01) (91, 5.67872464656829833984e-01) (92, 9.02044922113418579102e-02) (93, 6.71359151601791381836e-02) (94, 6.00952506065368652344e-01) (95, 7.32987880706787109375e-01) (96, 5.75393736362457275391e-01) (97, 6.93906843662261962891e-01) (98, 7.06720411777496337891e-01) (99, 1.58640313148498535156e+00) (100, 6.41780614852905273438e-01) (0, 2.66342312097549438477e-01) (1, 2.54150778055191040039e-01) (2, -3.47435891628265380859e-01) (3, -3.55562746524810791016e-01) (4, -8.52790772914886474609e-01) (5, -3.02947103977203369141e-01) (6, 3.57078923843801021576e-03) (7, 2.63593167066574096680e-01) (8, 5.90570211410522460938e-01) (9, 1.62555325031280517578e+00) (10, 1.72648042440414428711e-01) (11, -2.67037928104400634766e-01) (12, -2.71386682987213134766e-01) (13, 1.00457686930894851685e-02) (14, 1.42587333917617797852e-01) (15, 7.47895389795303344727e-02) (16, 7.44393914937973022461e-02) (17, 1.54738569259643554688e+00) (18, 5.42043209075927734375e-01) (19, 1.12529247999191284180e-01) (20, -3.06629836559295654297e-01) (21, -2.78284728527069091797e-01) (22, 1.51084244251251220703e-01) (23, 5.60299992561340332031e-01) (24, 4.37354087829589843750e-01) (25, 5.13652682304382324219e-01) (26, 1.71702849864959716797e+00) (27, -6.94028675556182861328e-01) (28, -3.67827355861663818359e-01) (29, 1.90684452652931213379e-01) (30, -7.89004981517791748047e-01) (31, 4.81202960014343261719e-01) (32, 5.42417466640472412109e-01) (33, 5.68442404270172119141e-01) (34, 1.75653323531150817871e-01) (35, 1.57774522900581359863e-01) (36, 5.02609074115753173828e-01) (37, 7.20367431640625000000e-02) (38, -3.13539028167724609375e-01) (39, 8.86540412902832031250e-02) (40, -7.77789890766143798828e-01) (41, 1.44029188156127929688e+00) (42, 5.86635708808898925781e-01) (43, 8.93690884113311767578e-02) (44, 1.78317993879318237305e-01) (45, 7.33666270971298217773e-02) (46, 1.12550115585327148438e+00) (47, 2.48790666460990905762e-01) (48, -6.97342008352279663086e-02) (49, -3.21184217929840087891e-01) (50, -3.71777951717376708984e-01) (51, 5.88655531406402587891e-01) (52, 4.68324840068817138672e-01) (53, 1.74893468618392944336e-01) (54, 1.26761540770530700684e-01) (55, 1.04248702526092529297e-01) (56, 1.73788249492645263672e+00) (57, 9.06053781509399414062e-02) (58, -2.21445918083190917969e-01) (59, -3.83129537105560302734e-01) (60, -2.72571384906768798828e-01) (61, -3.34732718765735626221e-02) (62, 1.48086607456207275391e-01) (63, 4.86196458339691162109e-01) (64, 6.27781808376312255859e-01) (65, 2.54984527826309204102e-01) (66, 1.95133018493652343750e+01) (67, 1.08197093009948730469e-01) (68, -6.63929283618927001953e-01) (69, 5.72041384875774383545e-02) (70, -7.19041675329208374023e-02) (71, -7.88279235363006591797e-01) (72, 1.37348368763923645020e-01) (73, 2.20443263649940490723e-01) (74, 5.20867288112640380859e-01) (75, 5.67757904529571533203e-01) (76, 1.58988690376281738281e+00) (77, -1.88222713768482208252e-02) (78, -2.58159577846527099609e-01) (79, 2.48133078217506408691e-01) (80, 2.37912043929100036621e-01) (81, -2.34350338578224182129e-01) (82, -7.41262972354888916016e-01) (83, 7.11440518498420715332e-02) (84, 1.56893625855445861816e-01) (85, 2.38938465714454650879e-01) (86, 4.72974896430969238281e-01) (87, -3.89310419559478759766e-02) (88, 2.41834014654159545898e-01) (89, 4.88642871379852294922e-01) (90, 1.74812540411949157715e-01) (91, 2.04567685723304748535e-01) (92, -3.24224412441253662109e-01) (93, -2.30962023138999938965e-01) (94, 2.55671322345733642578e-01) (95, 1.53570368885993957520e-01) (96, 2.40372970700263977051e-01) (97, 2.14748695492744445801e-01) (98, 5.59349715709686279297e-01) (99, 4.74484413862228393555e-01) (100, 7.66374319791793823242e-02) (0, 1.62202402949333190918e-01) (1, 4.33259457349777221680e-02) (2, 3.38312149047851562500e-01) (3, 3.58690202236175537109e-01) (4, 8.82762134075164794922e-01) (5, 3.16467761993408203125e-01) (6, 7.01895132660865783691e-02) (7, 2.03090712428092956543e-01) (8, -2.33982175588607788086e-01) (9, -9.82882022857666015625e+00) (10, 1.72247394919395446777e-01) (11, 4.56658840179443359375e-01) (12, 4.06544029712677001953e-01) (13, 1.74636110663414001465e-01) (14, 9.99971479177474975586e-02) (15, 1.31927162408828735352e-01) (16, 1.85067832469940185547e-01) (17, -1.99354982376098632812e+00) (18, -9.49490010738372802734e-01) (19, -1.91085547208786010742e-01) (20, 3.23690354824066162109e-01) (21, 3.04572582244873046875e-01) (22, 1.37431055307388305664e-01) (23, -1.72111630439758300781e-01) (24, -1.89701795578002929688e-01) (25, -1.05120432376861572266e+00) (26, -5.14569187164306640625e+00) (27, 9.46343719959259033203e-01) (28, 3.91302764415740966797e-01) (29, 1.97024688124656677246e-01) (30, 9.54225957393646240234e-01) (31, -1.44722282886505126953e-01) (32, -2.13076934218406677246e-01) (33, -9.96411144733428955078e-01) (34, -6.50883316993713378906e-02) (35, -1.01013690233230590820e-01) (36, -1.00766158103942871094e+00) (37, 4.16738241910934448242e-02) (38, 3.66230309009552001953e-01) (39, 1.44491657614707946777e-01) (40, 8.27865779399871826172e-01) (41, -2.08974242210388183594e+00) (42, -1.24527469277381896973e-01) (43, -2.34698787331581115723e-01) (44, 3.42397503554821014404e-02) (45, -2.14116975665092468262e-01) (46, -2.03258228302001953125e+00) (47, 2.97209396958351135254e-02) (48, 1.78069695830345153809e-01) (49, 2.85524249076843261719e-01) (50, 2.75338292121887207031e-01) (51, -4.20910000801086425781e-01) (52, -9.89990293979644775391e-01) (53, -5.80076649785041809082e-02) (54, 8.71648043394088745117e-02) (55, 1.13111481070518493652e-01) (56, -9.69479560852050781250e+00) (57, 1.06024190783500671387e-01) (58, 3.33556294441223144531e-01) (59, 3.57857525348663330078e-01) (60, 3.30811738967895507812e-01) (61, 7.22833648324012756348e-02) (62, 1.70469477772712707520e-01) (63, -9.81162130832672119141e-01) (64, -1.04104965925216674805e-01) (65, -9.44366827607154846191e-02) (66, -4.70045471191406250000e+01) (67, 4.69183772802352905273e-02) (68, 9.37471568584442138672e-01) (69, 1.15021273493766784668e-01) (70, 1.74372956156730651855e-01) (71, 7.94638454914093017578e-01) (72, 1.74624904990196228027e-01) (73, 9.66493338346481323242e-02) (74, -1.93540006875991821289e-01) (75, 8.43220576643943786621e-03) (76, -2.06449723243713378906e+00) (77, 1.42395213246345520020e-01) (78, 4.32092249393463134766e-01) (79, 4.56991754472255706787e-02) (80, 1.83301672339439392090e-01) (81, 2.90263116359710693359e-01) (82, 8.39466214179992675781e-01) (83, 4.97245043516159057617e-02) (84, 2.06808969378471374512e-01) (85, 1.55932113528251647949e-01) (86, -9.05916094779968261719e-02) (87, 2.26358771324157714844e-01) (88, -1.38476207852363586426e-01) (89, -2.46322795748710632324e-01) (90, 6.93841949105262756348e-02) (91, 1.13893911242485046387e-01) (92, 3.17564308643341064453e-01) (93, 2.84835755825042724609e-01) (94, 1.89145073294639587402e-01) (95, 1.88012823462486267090e-01) (96, 1.82171747088432312012e-01) (97, 1.82735964655876159668e-01) (98, -2.18496367335319519043e-01) (99, -7.28788435459136962891e-01) (100, 8.07201042771339416504e-02) (0, 1.75230011343955993652e-01) (1, 1.72883912920951843262e-01) (2, 2.83107876777648925781e-01) (3, 2.99642145633697509766e-01) (4, 9.52359139919281005859e-01) (5, 4.57898437976837158203e-01) (6, 1.39690905809402465820e-01) (7, 1.41274675726890563965e-01) (8, 1.73122391104698181152e-01) (9, -9.69281482696533203125e+00) (10, 1.07539281249046325684e-01) (11, 2.73798942565917968750e-01) (12, 2.99139440059661865234e-01) (13, 1.40226632356643676758e-01) (14, 1.87708511948585510254e-02) (15, 1.93234547972679138184e-01) (16, 4.15379628539085388184e-02) (17, -2.60450172424316406250e+00) (18, -1.05233371257781982422e+00) (19, 6.94694891571998596191e-02) (20, 2.72244513034820556641e-01) (21, 3.62773418426513671875e-01) (22, 1.25196799635887145996e-01) (23, -1.85947179794311523438e-01) (24, -1.46308958530426025391e-01) (25, -9.77277815341949462891e-01) (26, -4.96601009368896484375e+00) (27, 8.09442162513732910156e-01) (28, 3.41829478740692138672e-01) (29, 1.47485300898551940918e-01) (30, 8.73125195503234863281e-01) (31, -1.81167960166931152344e-01) (32, -1.33058309555053710938e-01) (33, -9.32716131210327148438e-01) (34, 7.58084133267402648926e-02) (35, -1.51398062705993652344e-01) (36, -1.00253593921661376953e+00) (37, 2.15681493282318115234e-01) (38, 4.54029917716979980469e-01) (39, 1.20331391692161560059e-01) (40, 9.37878429889678955078e-01) (41, -2.67986679077148437500e+00) (42, -1.31547585129737854004e-01) (43, 4.29981667548418045044e-03) (44, 2.29217186570167541504e-02) (45, 1.34027093648910522461e-01) (46, -1.96866655349731445312e+00) (47, 7.48730674386024475098e-02) (48, 9.20874923467636108398e-02) (49, 4.46596086025238037109e-01) (50, 3.44654917716979980469e-01) (51, -1.21134318411350250244e-01) (52, -9.70717728137969970703e-01) (53, 3.54651622474193572998e-02) (54, 1.35901182889938354492e-01) (55, 1.75776943564414978027e-01) (56, -9.76378726959228515625e+00) (57, 1.34442090988159179688e-01) (58, 4.59320127964019775391e-01) (59, 4.39393043518066406250e-01) (60, 3.09690237045288085938e-01) (61, 1.16946503520011901855e-01) (62, 1.55592523515224456787e-02) (63, -9.22265052795410156250e-01) (64, -1.95746809244155883789e-01) (65, 9.15498211979866027832e-02) (66, -4.71960372924804687500e+01) (67, 1.60402223467826843262e-01) (68, 8.61075222492218017578e-01) (69, 2.11333557963371276855e-01) (70, 6.36965408921241760254e-02) (71, 8.28254759311676025391e-01) (72, 9.40286368131637573242e-02) (73, 1.78952798247337341309e-01) (74, -1.57315552234649658203e-01) (75, -8.34821313619613647461e-02) (76, -2.68365621566772460938e+00) (77, 4.25351820886135101318e-02) (78, 3.85329961776733398438e-01) (79, 1.53774037957191467285e-01) (80, 4.45134490728378295898e-02) (81, 3.12817513942718505859e-01) (82, 8.10113012790679931641e-01) (83, 1.30208879709243774414e-01) (84, 8.64456743001937866211e-02) (85, 1.75315365195274353027e-01) (86, -1.47441685199737548828e-01) (87, 2.37004280090332031250e-01) (88, -9.06749889254570007324e-02) (89, 5.89814521372318267822e-02) (90, 1.61565229296684265137e-01) (91, 1.40573605895042419434e-01) (92, 4.31141257286071777344e-01) (93, 4.22106504440307617188e-01) (94, 7.47219100594520568848e-02) (95, 2.09947869181632995605e-01) (96, 6.90385475754737854004e-02) (97, 7.68255367875099182129e-02) (98, -8.30774307250976562500e-02) (99, -7.18318045139312744141e-01) (100, 7.11220279335975646973e-02) (0, -4.15077596902847290039e-01) (1, -3.98079425096511840820e-01) (2, 1.02571070194244384766e-01) (3, 1.16345763206481933594e-01) (4, 2.36513048410415649414e-01) (5, -1.45527506247162818909e-02) (6, -5.74256181716918945312e-01) (7, -4.93324249982833862305e-01) (8, 1.12712547183036804199e-01) (9, -1.52829676866531372070e-01) (10, -4.65847909450531005859e-01) (11, -2.28600837290287017822e-02) (12, -1.13781178370118141174e-02) (13, -5.52676081657409667969e-01) (14, -2.28491529822349548340e-01) (15, -4.22607451677322387695e-01) (16, -5.46645522117614746094e-01) (17, 2.24995046854019165039e-01) (18, 2.89854317903518676758e-01) (19, -1.16901889443397521973e-01) (20, 1.58048778772354125977e-01) (21, 1.46120011806488037109e-01) (22, -4.42065268754959106445e-01) (23, 1.16309151053428649902e-01) (24, 1.79569516330957412720e-03) (25, 3.87623995542526245117e-01) (26, 2.08039164543151855469e-01) (27, 2.66640275716781616211e-01) (28, 5.66291064023971557617e-02) (29, -4.56810027360916137695e-01) (30, 3.20725142955780029297e-01) (31, -2.35475480556488037109e-01) (32, 1.10622003674507141113e-01) (33, 3.16025584936141967773e-01) (34, -3.07843565940856933594e-01) (35, -3.00437450408935546875e-01) (36, 3.18540543317794799805e-01) (37, -2.66867399215698242188e-01) (38, 7.92914554476737976074e-02) (39, -5.52135467529296875000e-01) (40, 1.88932895660400390625e-01) (41, 2.22931057214736938477e-01) (42, 9.57072526216506958008e-03) (43, -2.89246082305908203125e-01) (44, -5.12714028358459472656e-01) (45, -1.76968485116958618164e-01) (46, 1.89893215894699096680e-01) (47, -5.95465302467346191406e-01) (48, -4.29410010576248168945e-01) (49, 2.95076593756675720215e-02) (50, 1.33235424757003784180e-01) (51, 1.13204941153526306152e-01) (52, 2.71403968334197998047e-01) (53, -1.58406406641006469727e-01) (54, -4.96032208204269409180e-01) (55, -5.33064365386962890625e-01) (56, -2.36545324325561523438e-01) (57, -4.97207045555114746094e-01) (58, 1.28542095422744750977e-01) (59, 1.50626659393310546875e-01) (60, 1.35036641731858253479e-02) (61, -4.94781941175460815430e-01) (62, -2.73562729358673095703e-01) (63, 4.21911090612411499023e-01) (64, 1.49976804852485656738e-01) (65, -2.60641515254974365234e-01) (66, -2.84515619277954101562e+00) (67, -5.26308894157409667969e-01) (68, 2.71342813968658447266e-01) (69, -5.03962397575378417969e-01) (70, -4.80431169271469116211e-01) (71, 2.85734146833419799805e-01) (72, -4.64000284671783447266e-01) (73, -1.34440571069717407227e-01) (74, 1.12196728587150573730e-01) (75, 1.08785228803753852844e-02) (76, 2.78650701045989990234e-01) (77, -4.89703685045242309570e-01) (78, -2.38650813698768615723e-02) (79, -2.56479859352111816406e-01) (80, -5.90364456176757812500e-01) (81, -1.74545738846063613892e-02) (82, 1.93983584642410278320e-01) (83, -5.57726025581359863281e-01) (84, -1.47355556488037109375e-01) (85, -1.82122468948364257812e-01) (86, -1.98309570550918579102e-01) (87, -4.20637339353561401367e-01) (88, -2.28321269154548645020e-01) (89, 2.03311499208211898804e-02) (90, -5.68693637847900390625e-01) (91, -5.33774971961975097656e-01) (92, 1.37009188532829284668e-01) (93, 4.80161458253860473633e-02) (94, -5.50629258155822753906e-01) (95, -4.52006965875625610352e-01) (96, -4.61368232965469360352e-01) (97, -5.64375400543212890625e-01) (98, -1.28043582662940025330e-02) (99, 3.06190252304077148438e-01) (100, -4.70324695110321044922e-01) (0, -1.68253332376480102539e-01) (1, -1.58906668424606323242e-01) (2, 1.55890464782714843750e-01) (3, 1.98586419224739074707e-01) (4, 2.66142368316650390625e-01) (5, 1.75202265381813049316e-01) (6, -3.03466796875000000000e-01) (7, -2.66559958457946777344e-01) (8, -1.76283478736877441406e-01) (9, -3.64675313234329223633e-01) (10, -2.58911371231079101562e-01) (11, 2.08112701773643493652e-01) (12, 1.77995041012763977051e-01) (13, -2.18624159693717956543e-01) (14, -2.33432337641716003418e-01) (15, -2.98317015171051025391e-01) (16, -4.73736912012100219727e-01) (17, 2.04773515462875366211e-01) (18, 1.67727053165435791016e-01) (19, -2.51104950904846191406e-01) (20, 2.43809506297111511230e-01) (21, 1.85885235667228698730e-01) (22, -2.85590350627899169922e-01) (23, -2.25563868880271911621e-01) (24, -1.12625740468502044678e-01) (25, 3.04230630397796630859e-01) (26, 7.35042765736579895020e-02) (27, 3.51509630680084228516e-01) (28, 2.75860816240310668945e-01) (29, -1.07313007116317749023e-01) (30, 2.79197961091995239258e-01) (31, -4.81049627065658569336e-01) (32, -1.10834263265132904053e-01) (33, 3.02376091480255126953e-01) (34, -2.47564211487770080566e-01) (35, -5.69791913032531738281e-01) (36, 1.71951234340667724609e-01) (37, -2.82106339931488037109e-01) (38, 1.59396201372146606445e-01) (39, -1.57553523778915405273e-01) (40, 2.64595121145248413086e-01) (41, 1.94313913583755493164e-01) (42, -2.19240754842758178711e-01) (43, 1.31919145584106445312e-01) (44, -1.08783215284347534180e-01) (45, -4.67984735965728759766e-01) (46, 2.59309798479080200195e-01) (47, -1.18626013398170471191e-01) (48, -2.53216743469238281250e-01) (49, 9.64839383959770202637e-02) (50, 1.20111674070358276367e-01) (51, -7.92070031166076660156e-02) (52, 2.34259799122810363770e-01) (53, -2.48230382800102233887e-01) (54, -2.77455031871795654297e-01) (55, -2.70475566387176513672e-01) (56, -4.09762531518936157227e-01) (57, -1.14668570458889007568e-01) (58, 9.99767035245895385742e-02) (59, 9.51371863484382629395e-02) (60, 2.79298663139343261719e-01) (61, -1.97352558374404907227e-01) (62, -5.21427989006042480469e-01) (63, 2.66249865293502807617e-01) (64, -1.83405846357345581055e-01) (65, -1.29652857780456542969e-01) (66, -2.97570419311523437500e+00) (67, -1.92126423120498657227e-01) (68, 3.39503288269042968750e-01) (69, -2.84137189388275146484e-01) (70, -2.46134564280509948730e-01) (71, 2.25306108593940734863e-01) (72, -1.74296110868453979492e-01) (73, -4.80686992406845092773e-01) (74, -2.35583305358886718750e-01) (75, -7.46987909078598022461e-02) (76, 1.31827294826507568359e-01) (77, -1.29805564880371093750e-01) (78, 1.95945650339126586914e-01) (79, -2.23081529140472412109e-01) (80, -1.10291831195354461670e-01) (81, 2.40480288863182067871e-01) (82, 2.76424378156661987305e-01) (83, -2.16301545500755310059e-01) (84, -5.96407055854797363281e-01) (85, -1.79822891950607299805e-01) (86, -4.77699100971221923828e-01) (87, -2.29667976498603820801e-01) (88, -3.58225464820861816406e-01) (89, -1.53054684400558471680e-01) (90, -2.81715393066406250000e-01) (91, -2.05836802721023559570e-01) (92, 1.26483514904975891113e-01) (93, 2.33930900692939758301e-01) (94, -2.79856503009796142578e-01) (95, -2.02951759099960327148e-01) (96, -2.24532231688499450684e-01) (97, -1.25654757022857666016e-01) (98, -2.39692747592926025391e-01) (99, 2.13972344994544982910e-01) (100, -1.06246381998062133789e-01) (101, -2.96984136104583740234e-01) (102, 8.86389613151550292969e-01) (103, -1.41957074403762817383e-01) (104, 1.82065084576606750488e-01) (105, 6.39117062091827392578e-01) (106, 5.88758528232574462891e-01) (107, -4.32935863733291625977e-01) (108, -3.73720735311508178711e-01) (109, -1.09014660120010375977e-01) (110, -1.36718213558197021484e-01) (111, 6.23329758644104003906e-01) 
