FANN_FLO_2.1
num_layers=6
learning_rate=0.600000
connection_rate=1.000000
network_type=0
learning_momentum=0.900000
training_algorithm=2
train_error_function=1
train_stop_function=0
cascade_output_change_fraction=0.010000
quickprop_decay=-0.000100
quickprop_mu=1.750000
rprop_increase_factor=1.200000
rprop_decrease_factor=0.500000
rprop_delta_min=0.000000
rprop_delta_max=50.000000
rprop_delta_zero=0.100000
cascade_output_stagnation_epochs=12
cascade_candidate_change_fraction=0.010000
cascade_candidate_stagnation_epochs=12
cascade_max_out_epochs=150
cascade_min_out_epochs=50
cascade_max_cand_epochs=150
cascade_min_cand_epochs=50
cascade_num_candidate_groups=2
bit_fail_limit=3.49999994039535522461e-01
cascade_candidate_limit=1.00000000000000000000e+03
cascade_weight_multiplier=4.00000005960464477539e-01
cascade_activation_functions_count=10
cascade_activation_functions=3 5 7 8 10 11 14 15 16 17 
cascade_activation_steepnesses_count=4
cascade_activation_steepnesses=2.50000000000000000000e-01 5.00000000000000000000e-01 7.50000000000000000000e-01 1.00000000000000000000e+00 
layer_sizes=4 11 6 5 4 4 
scale_included=0
neurons (num_inputs, activation_function, activation_steepness)=(0, 0, 0.00000000000000000000e+00) (0, 0, 0.00000000000000000000e+00) (0, 0, 0.00000000000000000000e+00) (0, 0, 0.00000000000000000000e+00) (4, 5, 5.00000000000000000000e-01) (4, 5, 5.00000000000000000000e-01) (4, 5, 5.00000000000000000000e-01) (4, 5, 5.00000000000000000000e-01) (4, 5, 5.00000000000000000000e-01) (4, 5, 5.00000000000000000000e-01) (4, 5, 5.00000000000000000000e-01) (4, 5, 5.00000000000000000000e-01) (4, 5, 5.00000000000000000000e-01) (4, 5, 5.00000000000000000000e-01) (0, 5, 0.00000000000000000000e+00) (11, 5, 5.00000000000000000000e-01) (11, 5, 5.00000000000000000000e-01) (11, 5, 5.00000000000000000000e-01) (11, 5, 5.00000000000000000000e-01) (11, 5, 5.00000000000000000000e-01) (0, 5, 0.00000000000000000000e+00) (6, 5, 5.00000000000000000000e-01) (6, 5, 5.00000000000000000000e-01) (6, 5, 5.00000000000000000000e-01) (6, 5, 5.00000000000000000000e-01) (0, 5, 0.00000000000000000000e+00) (5, 5, 5.00000000000000000000e-01) (5, 5, 5.00000000000000000000e-01) (5, 5, 5.00000000000000000000e-01) (0, 5, 0.00000000000000000000e+00) (4, 5, 5.00000000000000000000e-01) (4, 5, 5.00000000000000000000e-01) (4, 5, 5.00000000000000000000e-01) (0, 5, 0.00000000000000000000e+00) 
connections (connected_to_neuron, weight)=(0, 1.47632920742034912109e+00) (1, 1.45614206790924072266e+00) (2, 1.53096556663513183594e+00) (3, 1.48745000362396240234e-01) (0, -5.66558778285980224609e-01) (1, -4.82956826686859130859e-01) (2, -4.89308148622512817383e-01) (3, 5.38362205028533935547e-01) (0, 2.01613187789916992188e-01) (1, 3.19569647312164306641e-01) (2, 2.78950750827789306641e-01) (3, 3.26176285743713378906e-01) (0, 2.07989859580993652344e+00) (1, 2.03696727752685546875e+00) (2, 2.02820849418640136719e+00) (3, -1.08105972409248352051e-01) (0, 2.02650475502014160156e+00) (1, 1.98887896537780761719e+00) (2, 2.10570645332336425781e+00) (3, -9.32142436504364013672e-02) (0, -4.75674450397491455078e-01) (1, -6.25145614147186279297e-01) (2, -5.24680674076080322266e-01) (3, 5.47421872615814208984e-01) (0, 2.68991827964782714844e+00) (1, 2.72029566764831542969e+00) (2, 2.74045038223266601562e+00) (3, -2.92225778102874755859e-01) (0, -2.41513714194297790527e-01) (1, -2.83086687326431274414e-01) (2, -1.53769761323928833008e-01) (3, 2.78031289577484130859e-01) (0, -6.06814086437225341797e-01) (1, -6.02673709392547607422e-01) (2, -5.10630071163177490234e-01) (3, 5.45313358306884765625e-01) (0, -6.11617386341094970703e-01) (1, -5.25925099849700927734e-01) (2, -5.31657755374908447266e-01) (3, 4.93945360183715820312e-01) (4, 4.01454299688339233398e-01) (5, -3.15520912408828735352e-01) (6, -1.09851084649562835693e-01) (7, 3.06728631258010864258e-01) (8, 4.17445540428161621094e-01) (9, -2.60656386613845825195e-01) (10, 3.07443082332611083984e-01) (11, -1.49044454097747802734e-01) (12, -2.49150410294532775879e-01) (13, -2.06500872969627380371e-01) (14, -7.15796649456024169922e-01) (4, -1.84776932001113891602e-01) (5, 1.19549632072448730469e+00) (6, 2.73228824138641357422e-01) (7, 8.57448205351829528809e-02) (8, 5.51942810416221618652e-02) (9, 1.17642545700073242188e+00) (10, 1.49007037281990051270e-01) (11, 1.76363360881805419922e+00) (12, 1.18919014930725097656e+00) (13, 4.36565786600112915039e-01) (14, 3.89758616685867309570e-01) (4, 2.52595543861389160156e-01) (5, 2.31303262710571289062e+00) (6, -1.36592864990234375000e-01) (7, 2.91845917701721191406e-01) (8, 3.07295620441436767578e-01) (9, 2.37419271469116210938e+00) (10, 4.21436995267868041992e-01) (11, 2.52025771141052246094e+00) (12, 1.22151589393615722656e+00) (13, 1.27129602432250976562e+00) (14, 5.19806668162345886230e-02) (4, 2.02865138649940490723e-01) (5, 6.35452210903167724609e-01) (6, -3.19040089845657348633e-01) (7, 1.38312235474586486816e-01) (8, 1.55538439750671386719e-01) (9, 1.32899439334869384766e+00) (10, 1.12747699022293090820e-01) (11, 4.75798606872558593750e+00) (12, 1.43806874752044677734e+00) (13, 4.02499824762344360352e-01) (14, 4.26400572061538696289e-01) (4, -2.10678987205028533936e-02) (5, 1.22344803810119628906e+00) (6, 3.70709598064422607422e-01) (7, -1.91582329571247100830e-02) (8, 7.94429406523704528809e-02) (9, 1.10994195938110351562e+00) (10, 2.05689202994108200073e-02) (11, 1.84387457370758056641e+00) (12, 1.11062836647033691406e+00) (13, 5.71123301982879638672e-01) (14, 2.31827139854431152344e-01) (15, 2.75270056724548339844e+00) (16, 6.29503279924392700195e-02) (17, -6.59113600850105285645e-02) (18, 1.47633135318756103516e-01) (19, 4.35027107596397399902e-02) (20, -1.55876204371452331543e-02) (15, -1.74917742609977722168e-01) (16, 7.12397575378417968750e-01) (17, 4.01018917560577392578e-01) (18, 6.78894460201263427734e-01) (19, 6.73055112361907958984e-01) (20, 8.84779989719390869141e-02) (15, -9.45764034986495971680e-02) (16, 2.52244210243225097656e+00) (17, 2.28688403964042663574e-01) (18, 9.12221372127532958984e-01) (19, 1.45576572418212890625e+00) (20, 1.77070405334234237671e-02) (15, 4.71874624490737915039e-01) (16, -1.27509343624114990234e+00) (17, 2.11730286478996276855e-01) (18, -3.19267302751541137695e-01) (19, -1.31439697742462158203e+00) (20, 5.63081920146942138672e-01) (21, -3.60095575451850891113e-02) (22, 2.00112581253051757812e-01) (23, -1.79594010114669799805e-01) (24, 5.03552854061126708984e-01) (25, 2.71503895521163940430e-01) (21, 3.26624929904937744141e-01) (22, -3.14418315887451171875e-01) (23, -1.49754151701927185059e-01) (24, 7.56264984607696533203e-01) (25, 6.09489083290100097656e-01) (21, 1.47160306572914123535e-01) (22, -3.15774083137512207031e-01) (23, -2.85429775714874267578e-01) (24, 4.67601448297500610352e-01) (25, 6.02556228637695312500e-01) (26, 3.10876637697219848633e-01) (27, 9.87976968288421630859e-01) (28, 8.76819312572479248047e-01) (29, 5.62980532646179199219e-01) (26, 2.80817568302154541016e-01) (27, 8.28554332256317138672e-01) (28, 1.06101083755493164062e+00) (29, 5.63631474971771240234e-01) (26, 2.48600617051124572754e-01) (27, 9.81131792068481445312e-01) (28, 8.15557718276977539062e-01) (29, 5.71589469909667968750e-01) 
